digraph Tree {
node [shape=box, style="filled, rounded", color="black", fontname=helvetica] ;
edge [fontname=helvetica] ;
0 [label="petal width (cm) <= 0.8\ngini = 0.66\nsamples = 98\nvalue = [59, 47, 44]\nclass = setosa", fillcolor="#fcf0e8"] ;
1 [label="gini = 0.0\nsamples = 35\nvalue = [59, 0, 0]\nclass = setosa", fillcolor="#e58139"] ;
0 -> 1 [labeldistance=2.5, labelangle=45, headlabel="True"] ;
2 [label="sepal width (cm) <= 2.75\ngini = 0.5\nsamples = 63\nvalue = [0, 47, 44]\nclass = versicolor", fillcolor="#f2fdf7"] ;
0 -> 2 [labeldistance=2.5, labelangle=-45, headlabel="False"] ;
3 [label="petal length (cm) <= 4.95\ngini = 0.31\nsamples = 21\nvalue = [0, 25, 6]\nclass = versicolor", fillcolor="#69eb9f"] ;
2 -> 3 ;
4 [label="sepal length (cm) <= 4.95\ngini = 0.08\nsamples = 16\nvalue = [0, 24, 1]\nclass = versicolor", fillcolor="#41e686"] ;
3 -> 4 ;
5 [label="petal length (cm) <= 3.9\ngini = 0.5\nsamples = 2\nvalue = [0, 1, 1]\nclass = versicolor", fillcolor="#ffffff"] ;
4 -> 5 ;
6 [label="gini = 0.0\nsamples = 1\nvalue = [0, 1, 0]\nclass = versicolor", fillcolor="#39e581"] ;
5 -> 6 ;
7 [label="gini = 0.0\nsamples = 1\nvalue = [0, 0, 1]\nclass = virginica", fillcolor="#8139e5"] ;
5 -> 7 ;
8 [label="gini = 0.0\nsamples = 14\nvalue = [0, 23, 0]\nclass = versicolor", fillcolor="#39e581"] ;
4 -> 8 ;
9 [label="petal width (cm) <= 1.75\ngini = 0.28\nsamples = 5\nvalue = [0, 1, 5]\nclass = virginica", fillcolor="#9a61ea"] ;
3 -> 9 ;
10 [label="petal length (cm) <= 5.35\ngini = 0.5\nsamples = 2\nvalue = [0, 1, 1]\nclass = versicolor", fillcolor="#ffffff"] ;
9 -> 10 ;
11 [label="gini = 0.0\nsamples = 1\nvalue = [0, 1, 0]\nclass = versicolor", fillcolor="#39e581"] ;
10 -> 11 ;
12 [label="gini = 0.0\nsamples = 1\nvalue = [0, 0, 1]\nclass = virginica", fillcolor="#8139e5"] ;
10 -> 12 ;
13 [label="gini = 0.0\nsamples = 3\nvalue = [0, 0, 4]\nclass = virginica", fillcolor="#8139e5"] ;
9 -> 13 ;
14 [label="sepal length (cm) <= 6.65\ngini = 0.46\nsamples = 42\nvalue = [0, 22, 38]\nclass = virginica", fillcolor="#caacf4"] ;
2 -> 14 ;
15 [label="sepal width (cm) <= 2.85\ngini = 0.5\nsamples = 28\nvalue = [0, 19, 21]\nclass = virginica", fillcolor="#f3ecfd"] ;
14 -> 15 ;
16 [label="petal length (cm) <= 4.75\ngini = 0.34\nsamples = 9\nvalue = [0, 3, 11]\nclass = virginica", fillcolor="#a36fec"] ;
15 -> 16 ;
17 [label="gini = 0.0\nsamples = 3\nvalue = [0, 3, 0]\nclass = versicolor", fillcolor="#39e581"] ;
16 -> 17 ;
18 [label="gini = 0.0\nsamples = 6\nvalue = [0, 0, 11]\nclass = virginica", fillcolor="#8139e5"] ;
16 -> 18 ;
19 [label="petal width (cm) <= 1.7\ngini = 0.47\nsamples = 19\nvalue = [0, 16, 10]\nclass = versicolor", fillcolor="#b5f5d0"] ;
15 -> 19 ;
20 [label="gini = 0.0\nsamples = 10\nvalue = [0, 15, 0]\nclass = versicolor", fillcolor="#39e581"] ;
19 -> 20 ;
21 [label="sepal length (cm) <= 5.95\ngini = 0.17\nsamples = 9\nvalue = [0, 1, 10]\nclass = virginica", fillcolor="#8e4de8"] ;
19 -> 21 ;
22 [label="petal length (cm) <= 4.95\ngini = 0.38\nsamples = 2\nvalue = [0, 1, 3]\nclass = virginica", fillcolor="#ab7bee"] ;
21 -> 22 ;
23 [label="gini = 0.0\nsamples = 1\nvalue = [0, 1, 0]\nclass = versicolor", fillcolor="#39e581"] ;
22 -> 23 ;
24 [label="gini = 0.0\nsamples = 1\nvalue = [0, 0, 3]\nclass = virginica", fillcolor="#8139e5"] ;
22 -> 24 ;
25 [label="gini = 0.0\nsamples = 7\nvalue = [0, 0, 7]\nclass = virginica", fillcolor="#8139e5"] ;
21 -> 25 ;
26 [label="sepal width (cm) <= 2.85\ngini = 0.26\nsamples = 14\nvalue = [0, 3, 17]\nclass = virginica", fillcolor="#975cea"] ;
14 -> 26 ;
27 [label="gini = 0.0\nsamples = 1\nvalue = [0, 3, 0]\nclass = versicolor", fillcolor="#39e581"] ;
26 -> 27 ;
28 [label="gini = 0.0\nsamples = 13\nvalue = [0, 0, 17]\nclass = virginica", fillcolor="#8139e5"] ;
26 -> 28 ;
}